SVM-light Version V6.02
0 # kernel type
3 # kernel parameter -d 
1 # kernel parameter -g 
1 # kernel parameter -s 
1 # kernel parameter -r 
empty# kernel parameter -u 
200 # highest feature index 
100 # number of training documents 
57 # number of support vectors plus 1 
-0.82843493 # threshold b, each following line is a SV (starting with alpha*y)
-0.7313802410254369723574541239941 15:0.12 57:0.050000001 74:0.435 91:0.039999999 101:0.22499999 104:0.0049999999 125:0.025 141:0.050000001 144:0.045000002 149:0.85500002 171:0.125 173:0.02 194:0.0049999999 #
-0.14816504769085608872458692530927 33:0.0099999998 48:0.115 57:0.16 74:1.175 91:0.16 104:0.0099999998 125:0.0049999999 141:0.0049999999 144:0.039999999 149:0.015 171:0.29499999 173:0.0099999998 #
-0.7313802410254369723574541239941 57:0.0049999999 91:1.975 141:0.02 #
-0.7313802410254369723574541239941 48:0.38499999 57:0.055 91:1.545 141:0.015 #
0.7313802410254369723574541239941 4:0.0049999999 5:0.025 13:0.0049999999 15:0.145 27:0.1 29:0.0049999999 31:0.07 36:0.02 42:0.090000004 48:0.015 57:0.039999999 63:0.0099999998 66:0.025 69:0.0099999998 78:0.075000003 94:0.015 95:0.32499999 104:0.050000001 110:0.0049999999 114:0.0099999998 117:0.23999999 124:0.07 128:0.085000001 130:0.029999999 141:0.064999998 149:0.23999999 150:0.0099999998 156:0.02 170:0.035 184:0.155 194:0.0049999999 #
0.71909257044611663012290136975935 5:0.079999998 12:0.035 13:0.105 17:0.015 19:0.0049999999 30:0.0099999998 31:0.02 35:0.0099999998 54:0.075000003 56:0.050000001 69:0.050000001 78:0.13500001 81:0.064999998 89:0.015 90:0.0099999998 91:0.059999999 94:0.0049999999 95:0.029999999 98:0.090000004 102:0.029999999 106:0.075000003 114:0.085000001 117:0.015 122:0.035 128:0.0049999999 131:0.0049999999 139:0.050000001 141:0.0099999998 151:0.090000004 161:0.055 163:0.02 182:0.025 184:0.115 189:0.0049999999 194:0.039999999 195:0.125 198:0.34999999 #
0.55255982672618553230847737722797 1:0.19 4:0.0049999999 10:0.059999999 15:0.0099999998 29:0.0099999998 33:0.025 41:0.029999999 42:0.02 66:0.07 69:0.13500001 72:0.0049999999 81:0.0049999999 91:0.20999999 98:0.02 105:0.029999999 109:0.059999999 114:0.155 120:0.0049999999 125:0.045000002 133:0.35499999 141:0.079999998 144:0.25999999 149:0.015 168:0.029999999 171:0.0099999998 191:0.055 194:0.094999999 195:0.0099999998 #
0.2996863149724893204961517767515 1:0.11 10:0.035 27:0.055 29:0.035 33:0.039999999 37:0.029999999 40:0.029999999 41:0.0099999998 48:0.029999999 49:0.029999999 57:0.0049999999 65:0.015 72:0.059999999 74:0.0099999998 87:0.079999998 89:0.039999999 91:0.0099999998 94:0.0099999998 95:0.185 100:0.035 101:0.015 102:0.055 104:0.0099999998 105:0.0049999999 114:0.0049999999 123:0.0049999999 124:0.02 130:0.045000002 131:0.22499999 133:0.015 139:0.16500001 141:0.0049999999 156:0.015 164:0.02 171:0.0049999999 173:0.064999998 175:0.02 181:0.02 182:0.0099999998 184:0.090000004 189:0.315 194:0.015 #
-0.7313802410254369723574541239941 5:0.075000003 27:0.375 40:0.0049999999 48:0.0049999999 49:0.82999998 71:0.0049999999 87:0.25999999 114:0.0049999999 117:0.22 173:0.16 182:0.045000002 194:0.015 #
0.7313802410254369723574541239941 57:0.07 91:1.925 124:0.0049999999 #
-0.7313802410254369723574541239941 74:0.13 91:1.525 141:0.33500001 171:0.0099999998 #
0.7313802410254369723574541239941 2:0.105 4:0.055 15:0.075000003 17:0.0049999999 27:0.38999999 31:0.025 48:0.32499999 49:0.029999999 57:0.0049999999 69:0.0099999998 74:0.015 81:0.045000002 87:0.025 94:0.0049999999 100:0.090000004 101:0.075000003 102:0.0049999999 104:0.0099999998 117:0.0049999999 124:0.07 130:0.045000002 131:0.33000001 151:0.0099999998 173:0.02 182:0.029999999 184:0.17 189:0.025 #
0.7313802410254369723574541239941 2:0.0049999999 5:0.0049999999 10:0.0099999998 16:0.055 27:0.050000001 31:0.0049999999 33:0.115 41:0.0049999999 48:0.105 49:0.0099999998 69:0.0049999999 72:0.045000002 74:0.029999999 91:0.035 95:0.0049999999 104:0.0049999999 105:0.0049999999 114:0.064999998 117:0.085000001 124:0.029999999 125:0.055 130:0.0099999998 133:0.40000001 141:0.29499999 142:0.14 144:0.0099999998 156:0.0099999998 164:0.02 171:0.155 191:0.025 194:0.205 #
0.7313802410254369723574541239941 2:0.0099999998 3:0.029999999 5:0.0049999999 6:0.17 8:0.0049999999 11:0.015 14:0.015 20:0.085000001 34:0.105 35:0.035 38:0.029999999 40:0.0099999998 43:0.035 45:0.235 47:0.02 49:0.0049999999 50:0.07 52:0.015 55:0.055 60:0.0049999999 62:0.12 71:0.0099999998 85:0.0049999999 87:0.015 92:0.155 99:0.0049999999 107:0.075000003 108:0.039999999 111:0.0049999999 118:0.059999999 122:0.0049999999 126:0.059999999 131:0.0049999999 137:0.0049999999 139:0.0099999998 145:0.0099999998 147:0.0049999999 157:0.079999998 158:0.0099999998 161:0.025 166:0.0099999998 167:0.0099999998 172:0.015 174:0.045000002 176:0.0049999999 184:0.015 188:0.16 197:0.079999998 #
0.35809897438286214521596662052616 22:0.255 23:0.245 62:0.0099999998 70:0.0049999999 77:0.015 82:0.27500001 88:0.14 93:0.0049999999 116:0.050000001 129:0.039999999 131:0.0049999999 135:0.085000001 137:0.039999999 146:0.035 164:0.0049999999 178:0.059999999 183:0.35499999 185:0.050000001 189:0.0099999998 192:0.315 #
-0.7313802410254369723574541239941 4:0.53500003 28:1 33:0.0049999999 40:0.02 41:0.085000001 51:0.050000001 84:0.025 87:0.0049999999 101:0.015 113:0.02 125:0.015 171:0.0049999999 173:0.0099999998 194:0.0049999999 199:0.205 #
0.58737162753492677680355882330332 15:0.16 31:0.0049999999 48:0.0049999999 57:0.025 69:0.17 72:0.0049999999 74:0.105 91:1.1799999 124:0.16500001 125:0.0099999998 149:0.1 171:0.045000002 184:0.025 #
0.7313802410254369723574541239941 15:0.02 48:0.039999999 91:1.65 124:0.0049999999 125:0.18000001 133:0.085000001 149:0.02 #
0.6027988219752776766213742121181 4:0.045000002 12:0.075000003 13:0.0099999998 15:0.0049999999 19:0.035 31:0.0049999999 40:0.039999999 41:0.02 48:0.035 54:0.075000003 57:0.015 60:0.015 63:0.029999999 71:0.059999999 72:0.0049999999 74:0.0099999998 80:0.255 81:0.015 84:0.0099999998 90:0.0049999999 94:0.0099999998 95:0.045000002 99:0.23 100:0.035 101:0.02 102:0.0049999999 104:0.025 106:0.029999999 114:0.0099999998 124:0.085000001 131:0.015 132:0.13500001 141:0.035 147:0.035 151:0.015 158:0.27000001 159:0.155 165:0.015 170:0.035 173:0.02 180:0.0049999999 194:0.0049999999 #
-0.7313802410254369723574541239941 4:0.015 5:0.36000001 16:0.045000002 27:0.059999999 28:0.0049999999 33:0.025 35:0.0099999998 63:0.085000001 70:0.13500001 71:0.36000001 74:0.039999999 80:0.0099999998 100:0.0049999999 114:0.025 117:0.064999998 121:0.0049999999 144:0.0099999998 160:0.039999999 161:0.25 170:0.035 171:0.029999999 173:0.12 182:0.125 194:0.02 195:0.12 #
-0.7313802410254369723574541239941 57:0.015 91:1.985 #
-0.7313802410254369723574541239941 48:0.11 57:0.035 74:0.045000002 91:1.465 142:0.345 #
0.51170381717945023769544832248357 2:0.015 7:0.19499999 8:0.15000001 9:0.15000001 10:0.059999999 16:0.064999998 25:0.094999999 35:0.025 40:0.015 57:0.0049999999 63:0.0099999998 70:0.0049999999 96:0.2 109:0.1 114:0.0049999999 120:0.075000003 133:0.015 144:0.025 155:0.079999998 157:0.085000001 158:0.0049999999 160:0.16500001 164:0.029999999 165:0.094999999 166:0.085000001 170:0.0099999998 171:0.0049999999 179:0.14 181:0.050000001 195:0.039999999 #
0.22890810020933688440081255066616 17:0.19 36:0.16500001 40:0.0049999999 63:0.079999998 70:0.059999999 89:0.0049999999 93:0.32499999 94:0.02 102:0.115 104:0.02 131:0.025 152:0.55500001 156:0.079999998 170:0.07 173:0.0049999999 175:0.085000001 180:0.07 189:0.0049999999 193:0.12 #
0.51560527383069265638937395124231 1:0.029999999 8:0.015 10:0.064999998 16:0.0049999999 29:0.045000002 32:0.039999999 33:0.025 35:0.050000001 37:0.090000004 39:0.0049999999 61:0.079999998 66:0.13500001 72:0.0099999998 91:0.0049999999 95:0.0049999999 96:0.039999999 104:0.0049999999 105:0.039999999 109:0.16 113:0.090000004 125:0.02 126:0.0049999999 127:0.015 133:0.0049999999 140:0.015 155:0.085000001 158:0.0099999998 165:0.40000001 166:0.28999999 168:0.059999999 170:0.0049999999 177:0.029999999 181:0.0099999998 190:0.035 194:0.015 195:0.059999999 #
0.27322642691297027717212131392444 12:0.0099999998 17:0.055 19:0.050000001 31:0.23 36:0.105 57:0.050000001 63:0.13500001 77:0.015 90:0.085000001 94:0.26499999 102:0.075000003 104:0.20999999 110:0.029999999 124:0.0049999999 131:0.085000001 156:0.015 170:0.22499999 173:0.039999999 175:0.035 180:0.13 189:0.025 193:0.1 200:0.025 #
-0.7313802410254369723574541239941 1:0.025 15:0.185 16:0.015 29:0.175 33:0.0049999999 57:0.02 63:0.015 66:0.059999999 72:0.039999999 74:0.094999999 91:0.015 100:0.16 101:0.105 104:0.145 113:0.064999998 114:0.1 117:0.0049999999 123:0.14 125:0.079999998 141:0.11 149:0.0049999999 164:0.0099999998 170:0.02 171:0.0099999998 173:0.039999999 194:0.079999998 195:0.19 199:0.085000001 #
0.7313802410254369723574541239941 15:0.0099999998 19:0.25 29:0.029999999 31:0.025 42:0.0049999999 48:0.0049999999 56:0.0049999999 57:0.035 72:0.18000001 74:0.035 78:0.059999999 81:0.45500001 91:0.029999999 94:0.039999999 104:0.064999998 109:0.15000001 110:0.0049999999 114:0.015 122:0.175 123:0.27000001 141:0.050000001 149:0.050000001 170:0.015 189:0.0049999999 194:0.029999999 200:0.0049999999 #
-0.7313802410254369723574541239941 57:0.235 78:0.015 91:1.295 104:0.19 128:0.045000002 141:0.22 #
-0.7313802410254369723574541239941 48:0.50999999 74:0.22 78:0.045000002 91:0.99000001 117:0.105 128:0.094999999 141:0.0099999998 149:0.015 173:0.0099999998 #
0.3462438322532327972247401248751 31:0.025 57:0.0099999998 63:0.125 70:0.155 78:0.0049999999 89:0.1 90:0.30000001 93:0.0099999998 94:0.115 102:0.12 104:0.094999999 110:0.015 131:0.02 139:0.0049999999 152:0.0049999999 156:0.26499999 170:0.079999998 175:0.245 180:0.16500001 189:0.115 193:0.025 #
-0.7313802410254369723574541239941 1:0.029999999 4:0.0049999999 5:0.0049999999 10:0.02 15:0.0049999999 16:0.0099999998 28:0.055 29:0.029999999 33:0.0049999999 37:0.015 40:0.145 41:0.0049999999 42:0.0099999998 49:0.025 60:0.029999999 63:0.0099999998 66:0.079999998 67:0.059999999 71:0.050000001 72:0.0099999998 74:0.0049999999 76:0.035 79:0.0099999998 84:0.115 87:0.035 91:0.02 100:0.025 101:0.0049999999 109:0.02 113:0.025 114:0.02 121:0.63999999 125:0.0049999999 127:0.175 133:0.0049999999 144:0.0049999999 147:0.090000004 149:0.039999999 160:0.0049999999 170:0.035 171:0.0099999998 173:0.0049999999 182:0.025 190:0.02 194:0.0099999998 195:0.0099999998 #
0.7313802410254369723574541239941 31:0.039999999 91:1.8 141:0.16 #
-0.7313802410254369723574541239941 91:2 #
0.7313802410254369723574541239941 48:0.65499997 57:0.050000001 69:0.015 74:0.07 91:0.56 124:0.51499999 130:0.1 141:0.02 173:0.015 #
-0.7313802410254369723574541239941 1:0.059999999 4:0.0099999998 5:0.029999999 10:0.07 15:0.0099999998 28:0.0099999998 33:0.039999999 41:0.064999998 42:0.035 48:0.035 49:0.0049999999 57:0.0049999999 63:0.02 72:0.085000001 74:0.12 100:0.035 101:0.205 104:0.055 105:0.07 109:0.045000002 113:0.125 114:0.07 117:0.12 123:0.039999999 125:0.14 128:0.075000003 130:0.059999999 141:0.055 144:0.055 149:0.02 170:0.075000003 171:0.045000002 173:0.055 194:0.045000002 195:0.0099999998 #
0.027907606987257027597593150858302 91:1.98 171:0.02 #
-0.7313802410254369723574541239941 91:2 #
-0.7313802410254369723574541239941 48:1.34 57:0.059999999 74:0.064999998 91:0.38999999 141:0.145 #
0.7313802410254369723574541239941 57:0.039999999 91:1.96 #
0.099401347089974168014236965973396 31:1.015 48:0.20999999 57:0.31 91:0.34 94:0.0049999999 104:0.0099999998 141:0.11 #
-0.7313802410254369723574541239941 4:0.029999999 10:0.0049999999 15:0.0049999999 16:0.105 17:0.0099999998 28:0.19 29:0.064999998 32:0.115 33:0.125 35:0.02 40:0.015 41:0.02 51:0.075000003 65:0.02 71:0.015 72:0.115 76:0.039999999 84:0.12 99:0.0049999999 100:0.029999999 101:0.029999999 104:0.0049999999 113:0.064999998 114:0.015 115:0.015 121:0.0049999999 123:0.14 125:0.02 126:0.039999999 147:0.0099999998 149:0.055 159:0.0049999999 164:0.090000004 170:0.0099999998 171:0.025 173:0.0099999998 181:0.035 187:0.090000004 190:0.125 194:0.0099999998 195:0.07 199:0.0049999999 #
-0.7313802410254369723574541239941 1:0.0049999999 4:0.0049999999 5:0.0049999999 10:0.029999999 15:0.045000002 16:0.0049999999 28:0.075000003 29:0.0049999999 33:0.11 41:0.094999999 51:0.075000003 57:0.0049999999 63:0.14 66:0.059999999 70:0.0049999999 72:0.125 74:0.064999998 91:0.0099999998 99:0.045000002 100:0.035 101:0.19 104:0.07 113:0.18000001 114:0.025 115:0.015 117:0.02 123:0.11 125:0.055 133:0.035 141:0.0049999999 142:0.035 149:0.090000004 170:0.12 171:0.02 181:0.0049999999 187:0.0049999999 194:0.025 195:0.045000002 199:0.0049999999 #
-0.7313802410254369723574541239941 4:0.0049999999 28:0.0049999999 33:0.045000002 48:0.12 74:0.31999999 78:0.0099999998 91:0.0049999999 101:0.0049999999 114:0.495 117:0.050000001 141:0.315 144:0.045000002 194:0.57999998 #
-0.7313802410254369723574541239941 15:0.025 48:0.27000001 57:0.47999999 74:0.2 91:0.87 104:0.050000001 124:0.015 149:0.045000002 171:0.02 173:0.025 #
-0.7313802410254369723574541239941 48:0.405 57:0.55500001 72:0.0049999999 74:0.215 91:0.39500001 125:0.085000001 141:0.079999998 149:0.055 171:0.025 173:0.16 194:0.02 #
0.7313802410254369723574541239941 91:1.595 128:0.015 141:0.38999999 #
0.7313802410254369723574541239941 15:0.079999998 33:0.0049999999 48:0.36500001 57:0.015 69:0.094999999 74:0.17 91:0.69 104:0.0049999999 124:0.38499999 125:0.0099999998 141:0.064999998 149:0.0049999999 171:0.094999999 194:0.015 #
0.7313802410254369723574541239941 15:0.02 48:0.0049999999 57:0.35499999 69:0.015 91:1.3200001 104:0.0099999998 124:0.059999999 128:0.205 141:0.0099999998 #
-0.7313802410254369723574541239941 15:0.15000001 28:0.029999999 40:0.0049999999 41:0.025 48:0.015 51:0.0049999999 57:0.0049999999 60:0.0049999999 63:0.0099999998 74:0.40000001 87:0.0099999998 100:0.0049999999 101:0.63499999 104:0.050000001 105:0.0049999999 114:0.16500001 125:0.0099999998 141:0.115 149:0.145 170:0.0099999998 173:0.015 194:0.13 195:0.055 #
0.7313802410254369723574541239941 15:0.0049999999 31:0.105 48:0.25999999 57:0.19499999 69:0.07 74:0.145 91:0.74000001 101:0.11 104:0.0099999998 124:0.28999999 125:0.0049999999 128:0.0049999999 141:0.025 173:0.035 #
0.33893229795771295798090250173118 15:0.015 31:0.050000001 48:0.19499999 57:0.315 74:0.23 91:0.60500002 104:0.015 117:0.02 124:0.52999997 125:0.0049999999 171:0.02 #
0.11292128080361399367070873722696 9:0.025 21:0.235 26:0.19 39:0.094999999 61:0.25 69:0.23 91:0.19499999 104:0.0099999998 105:0.1 120:0.0049999999 133:0.0049999999 134:0.17 140:0.30000001 144:0.015 150:0.0049999999 160:0.039999999 166:0.050000001 168:0.039999999 171:0.02 177:0.02 #
0.29632321323271793023224063290399 12:0.0049999999 31:0.14 69:0.0049999999 91:1.34 128:0.02 141:0.49000001 #
0.7313802410254369723574541239941 91:1.9 133:0.0099999998 141:0.045000002 171:0.045000002 #
0.12842564339956052954505594243528 91:1.84 128:0.13 141:0.029999999 #
